digraph Tree {
node [shape=box, style="filled, rounded", color="black", fontname="helvetica"] ;
edge [fontname="helvetica"] ;
0 [label="Blue <= 0.5\ngini = 0.5\nsamples = 477\nvalue = [408, 342]", fillcolor="#fbebdf"] ;
1 [label="Red <= 0.4\ngini = 0.2\nsamples = 263\nvalue = [391, 35]", fillcolor="#e78c4b"] ;
0 -> 1 [labeldistance=2.5, labelangle=45, headlabel="True"] ;
2 [label="gini = 0.0\nsamples = 123\nvalue = [210, 0]", fillcolor="#e58139"] ;
1 -> 2 ;
3 [label="Red <= 0.9\ngini = 0.3\nsamples = 140\nvalue = [181, 35]", fillcolor="#ea995f"] ;
1 -> 3 ;
4 [label="Blue <= 0.4\ngini = 0.2\nsamples = 102\nvalue = [144, 21]", fillcolor="#e99356"] ;
3 -> 4 ;
5 [label="Green <= 0.6\ngini = 0.0\nsamples = 86\nvalue = [138, 2]", fillcolor="#e5833c"] ;
4 -> 5 ;
6 [label="gini = 0.0\nsamples = 49\nvalue = [80, 0]", fillcolor="#e58139"] ;
5 -> 6 ;
7 [label="Blue <= 0.4\ngini = 0.1\nsamples = 37\nvalue = [58, 2]", fillcolor="#e68540"] ;
5 -> 7 ;
8 [label="gini = 0.0\nsamples = 34\nvalue = [55, 0]", fillcolor="#e58139"] ;
7 -> 8 ;
9 [label="Red <= 0.7\ngini = 0.5\nsamples = 3\nvalue = [3, 2]", fillcolor="#f6d5bd"] ;
7 -> 9 ;
10 [label="gini = 0.0\nsamples = 2\nvalue = [3, 0]", fillcolor="#e58139"] ;
9 -> 10 ;
11 [label="gini = 0.0\nsamples = 1\nvalue = [0, 2]", fillcolor="#399de5"] ;
9 -> 11 ;
12 [label="Green <= 0.2\ngini = 0.4\nsamples = 16\nvalue = [6, 19]", fillcolor="#78bced"] ;
4 -> 12 ;
13 [label="gini = 0.0\nsamples = 2\nvalue = [3, 0]", fillcolor="#e58139"] ;
12 -> 13 ;
14 [label="Blue <= 0.5\ngini = 0.2\nsamples = 14\nvalue = [3, 19]", fillcolor="#58ace9"] ;
12 -> 14 ;
15 [label="Red <= 0.6\ngini = 0.4\nsamples = 6\nvalue = [3, 7]", fillcolor="#8ec7f0"] ;
14 -> 15 ;
16 [label="gini = 0.0\nsamples = 2\nvalue = [3, 0]", fillcolor="#e58139"] ;
15 -> 16 ;
17 [label="gini = 0.0\nsamples = 4\nvalue = [0, 7]", fillcolor="#399de5"] ;
15 -> 17 ;
18 [label="gini = 0.0\nsamples = 8\nvalue = [0, 12]", fillcolor="#399de5"] ;
14 -> 18 ;
19 [label="Green <= 0.8\ngini = 0.4\nsamples = 38\nvalue = [37, 14]", fillcolor="#efb184"] ;
3 -> 19 ;
20 [label="Green <= 0.1\ngini = 0.3\nsamples = 29\nvalue = [33, 7]", fillcolor="#eb9c63"] ;
19 -> 20 ;
21 [label="gini = 0.0\nsamples = 4\nvalue = [8, 0]", fillcolor="#e58139"] ;
20 -> 21 ;
22 [label="Red <= 0.9\ngini = 0.3\nsamples = 25\nvalue = [25, 7]", fillcolor="#eca470"] ;
20 -> 22 ;
23 [label="gini = 0.0\nsamples = 1\nvalue = [0, 1]", fillcolor="#399de5"] ;
22 -> 23 ;
24 [label="Green <= 0.2\ngini = 0.3\nsamples = 24\nvalue = [25, 6]", fillcolor="#eb9f69"] ;
22 -> 24 ;
25 [label="Red <= 1.0\ngini = 0.4\nsamples = 4\nvalue = [1, 3]", fillcolor="#7bbeee"] ;
24 -> 25 ;
26 [label="gini = 0.0\nsamples = 3\nvalue = [0, 3]", fillcolor="#399de5"] ;
25 -> 26 ;
27 [label="gini = 0.0\nsamples = 1\nvalue = [1, 0]", fillcolor="#e58139"] ;
25 -> 27 ;
28 [label="Red <= 1.0\ngini = 0.2\nsamples = 20\nvalue = [24, 3]", fillcolor="#e89152"] ;
24 -> 28 ;
29 [label="gini = 0.0\nsamples = 15\nvalue = [21, 0]", fillcolor="#e58139"] ;
28 -> 29 ;
30 [label="Green <= 0.4\ngini = 0.5\nsamples = 5\nvalue = [3, 3]", fillcolor="#ffffff"] ;
28 -> 30 ;
31 [label="gini = 0.0\nsamples = 2\nvalue = [2, 0]", fillcolor="#e58139"] ;
30 -> 31 ;
32 [label="Green <= 0.5\ngini = 0.4\nsamples = 3\nvalue = [1, 3]", fillcolor="#7bbeee"] ;
30 -> 32 ;
33 [label="gini = 0.0\nsamples = 1\nvalue = [0, 2]", fillcolor="#399de5"] ;
32 -> 33 ;
34 [label="Blue <= 0.3\ngini = 0.5\nsamples = 2\nvalue = [1, 1]", fillcolor="#ffffff"] ;
32 -> 34 ;
35 [label="gini = 0.0\nsamples = 1\nvalue = [1, 0]", fillcolor="#e58139"] ;
34 -> 35 ;
36 [label="gini = 0.0\nsamples = 1\nvalue = [0, 1]", fillcolor="#399de5"] ;
34 -> 36 ;
37 [label="Blue <= 0.3\ngini = 0.5\nsamples = 9\nvalue = [4, 7]", fillcolor="#aad5f4"] ;
19 -> 37 ;
38 [label="gini = 0.0\nsamples = 4\nvalue = [4, 0]", fillcolor="#e58139"] ;
37 -> 38 ;
39 [label="gini = 0.0\nsamples = 5\nvalue = [0, 7]", fillcolor="#399de5"] ;
37 -> 39 ;
40 [label="Green <= 0.0\ngini = 0.1\nsamples = 214\nvalue = [17, 307]", fillcolor="#44a2e6"] ;
0 -> 40 [labeldistance=2.5, labelangle=-45, headlabel="False"] ;
41 [label="Red <= 0.2\ngini = 0.5\nsamples = 4\nvalue = [3, 3]", fillcolor="#ffffff"] ;
40 -> 41 ;
42 [label="gini = 0.0\nsamples = 1\nvalue = [3, 0]", fillcolor="#e58139"] ;
41 -> 42 ;
43 [label="gini = 0.0\nsamples = 3\nvalue = [0, 3]", fillcolor="#399de5"] ;
41 -> 43 ;
44 [label="Blue <= 0.6\ngini = 0.1\nsamples = 210\nvalue = [14, 304]", fillcolor="#42a2e6"] ;
40 -> 44 ;
45 [label="Green <= 0.7\ngini = 0.4\nsamples = 37\nvalue = [14, 40]", fillcolor="#7ebfee"] ;
44 -> 45 ;
46 [label="Green <= 0.5\ngini = 0.5\nsamples = 26\nvalue = [14, 26]", fillcolor="#a4d2f3"] ;
45 -> 46 ;
47 [label="Blue <= 0.6\ngini = 0.4\nsamples = 22\nvalue = [10, 24]", fillcolor="#8bc6f0"] ;
46 -> 47 ;
48 [label="Red <= 0.3\ngini = 0.5\nsamples = 19\nvalue = [10, 18]", fillcolor="#a7d3f3"] ;
47 -> 48 ;
49 [label="Blue <= 0.6\ngini = 0.2\nsamples = 9\nvalue = [10, 1]", fillcolor="#e88e4d"] ;
48 -> 49 ;
50 [label="gini = 0.0\nsamples = 5\nvalue = [7, 0]", fillcolor="#e58139"] ;
49 -> 50 ;
51 [label="Red <= 0.2\ngini = 0.4\nsamples = 4\nvalue = [3, 1]", fillcolor="#eeab7b"] ;
49 -> 51 ;
52 [label="gini = 0.0\nsamples = 3\nvalue = [3, 0]", fillcolor="#e58139"] ;
51 -> 52 ;
53 [label="gini = 0.0\nsamples = 1\nvalue = [0, 1]", fillcolor="#399de5"] ;
51 -> 53 ;
54 [label="gini = 0.0\nsamples = 10\nvalue = [0, 17]", fillcolor="#399de5"] ;
48 -> 54 ;
55 [label="gini = 0.0\nsamples = 3\nvalue = [0, 6]", fillcolor="#399de5"] ;
47 -> 55 ;
56 [label="Green <= 0.6\ngini = 0.4\nsamples = 4\nvalue = [4, 2]", fillcolor="#f2c09c"] ;
46 -> 56 ;
57 [label="gini = 0.0\nsamples = 1\nvalue = [3, 0]", fillcolor="#e58139"] ;
56 -> 57 ;
58 [label="Green <= 0.6\ngini = 0.4\nsamples = 3\nvalue = [1, 2]", fillcolor="#9ccef2"] ;
56 -> 58 ;
59 [label="gini = 0.0\nsamples = 2\nvalue = [0, 2]", fillcolor="#399de5"] ;
58 -> 59 ;
60 [label="gini = 0.0\nsamples = 1\nvalue = [1, 0]", fillcolor="#e58139"] ;
58 -> 60 ;
61 [label="gini = 0.0\nsamples = 11\nvalue = [0, 14]", fillcolor="#399de5"] ;
45 -> 61 ;
62 [label="gini = 0.0\nsamples = 173\nvalue = [0, 264]", fillcolor="#399de5"] ;
44 -> 62 ;
}