digraph Tree {
node [shape=box, style="filled, rounded", color="black", fontname="helvetica"] ;
edge [fontname="helvetica"] ;
0 [label="Blue <= 0.5\ngini = 0.5\nsamples = 471\nvalue = [380, 370]", fillcolor="#fefcfa"] ;
1 [label="Blue <= 0.4\ngini = 0.1\nsamples = 237\nvalue = [351, 28]", fillcolor="#e78b49"] ;
0 -> 1 [labeldistance=2.5, labelangle=45, headlabel="True"] ;
2 [label="Green <= 1.0\ngini = 0.0\nsamples = 198\nvalue = [310, 5]", fillcolor="#e5833c"] ;
1 -> 2 ;
3 [label="Red <= 1.0\ngini = 0.0\nsamples = 192\nvalue = [301, 3]", fillcolor="#e5823b"] ;
2 -> 3 ;
4 [label="Green <= 0.8\ngini = 0.0\nsamples = 190\nvalue = [300, 2]", fillcolor="#e5823a"] ;
3 -> 4 ;
5 [label="gini = 0.0\nsamples = 161\nvalue = [260, 0]", fillcolor="#e58139"] ;
4 -> 5 ;
6 [label="Green <= 0.8\ngini = 0.1\nsamples = 29\nvalue = [40, 2]", fillcolor="#e68743"] ;
4 -> 6 ;
7 [label="gini = 0.0\nsamples = 1\nvalue = [0, 2]", fillcolor="#399de5"] ;
6 -> 7 ;
8 [label="gini = 0.0\nsamples = 28\nvalue = [40, 0]", fillcolor="#e58139"] ;
6 -> 8 ;
9 [label="Red <= 1.0\ngini = 0.5\nsamples = 2\nvalue = [1, 1]", fillcolor="#ffffff"] ;
3 -> 9 ;
10 [label="gini = 0.0\nsamples = 1\nvalue = [0, 1]", fillcolor="#399de5"] ;
9 -> 10 ;
11 [label="gini = 0.0\nsamples = 1\nvalue = [1, 0]", fillcolor="#e58139"] ;
9 -> 11 ;
12 [label="Green <= 1.0\ngini = 0.3\nsamples = 6\nvalue = [9, 2]", fillcolor="#eb9d65"] ;
2 -> 12 ;
13 [label="gini = 0.0\nsamples = 1\nvalue = [0, 2]", fillcolor="#399de5"] ;
12 -> 13 ;
14 [label="gini = 0.0\nsamples = 5\nvalue = [9, 0]", fillcolor="#e58139"] ;
12 -> 14 ;
15 [label="Blue <= 0.4\ngini = 0.5\nsamples = 39\nvalue = [41, 23]", fillcolor="#f4c8a8"] ;
1 -> 15 ;
16 [label="gini = 0.0\nsamples = 2\nvalue = [0, 5]", fillcolor="#399de5"] ;
15 -> 16 ;
17 [label="Green <= 0.9\ngini = 0.4\nsamples = 37\nvalue = [41, 18]", fillcolor="#f0b890"] ;
15 -> 17 ;
18 [label="Red <= 0.8\ngini = 0.4\nsamples = 35\nvalue = [41, 16]", fillcolor="#efb286"] ;
17 -> 18 ;
19 [label="Red <= 0.6\ngini = 0.1\nsamples = 26\nvalue = [41, 3]", fillcolor="#e78a47"] ;
18 -> 19 ;
20 [label="gini = 0.0\nsamples = 21\nvalue = [37, 0]", fillcolor="#e58139"] ;
19 -> 20 ;
21 [label="Red <= 0.8\ngini = 0.5\nsamples = 5\nvalue = [4, 3]", fillcolor="#f8e0ce"] ;
19 -> 21 ;
22 [label="gini = 0.0\nsamples = 2\nvalue = [0, 2]", fillcolor="#399de5"] ;
21 -> 22 ;
23 [label="Green <= 0.2\ngini = 0.3\nsamples = 3\nvalue = [4, 1]", fillcolor="#eca06a"] ;
21 -> 23 ;
24 [label="gini = 0.0\nsamples = 2\nvalue = [4, 0]", fillcolor="#e58139"] ;
23 -> 24 ;
25 [label="gini = 0.0\nsamples = 1\nvalue = [0, 1]", fillcolor="#399de5"] ;
23 -> 25 ;
26 [label="gini = 0.0\nsamples = 9\nvalue = [0, 13]", fillcolor="#399de5"] ;
18 -> 26 ;
27 [label="gini = 0.0\nsamples = 2\nvalue = [0, 2]", fillcolor="#399de5"] ;
17 -> 27 ;
28 [label="Green <= 0.5\ngini = 0.1\nsamples = 234\nvalue = [29, 342]", fillcolor="#4aa5e7"] ;
0 -> 28 [labeldistance=2.5, labelangle=-45, headlabel="False"] ;
29 [label="Blue <= 0.6\ngini = 0.2\nsamples = 125\nvalue = [28, 169]", fillcolor="#5aade9"] ;
28 -> 29 ;
30 [label="Blue <= 0.5\ngini = 0.5\nsamples = 26\nvalue = [24, 14]", fillcolor="#f4caac"] ;
29 -> 30 ;
31 [label="gini = 0.0\nsamples = 2\nvalue = [0, 2]", fillcolor="#399de5"] ;
30 -> 31 ;
32 [label="Red <= 0.5\ngini = 0.4\nsamples = 24\nvalue = [24, 12]", fillcolor="#f2c09c"] ;
30 -> 32 ;
33 [label="Blue <= 0.6\ngini = 0.1\nsamples = 17\nvalue = [24, 2]", fillcolor="#e78c49"] ;
32 -> 33 ;
34 [label="gini = 0.0\nsamples = 15\nvalue = [22, 0]", fillcolor="#e58139"] ;
33 -> 34 ;
35 [label="Green <= 0.1\ngini = 0.5\nsamples = 2\nvalue = [2, 2]", fillcolor="#ffffff"] ;
33 -> 35 ;
36 [label="gini = 0.0\nsamples = 1\nvalue = [0, 2]", fillcolor="#399de5"] ;
35 -> 36 ;
37 [label="gini = 0.0\nsamples = 1\nvalue = [2, 0]", fillcolor="#e58139"] ;
35 -> 37 ;
38 [label="gini = 0.0\nsamples = 7\nvalue = [0, 10]", fillcolor="#399de5"] ;
32 -> 38 ;
39 [label="Green <= 0.2\ngini = 0.0\nsamples = 99\nvalue = [4, 155]", fillcolor="#3ea0e6"] ;
29 -> 39 ;
40 [label="gini = 0.0\nsamples = 40\nvalue = [0, 62]", fillcolor="#399de5"] ;
39 -> 40 ;
41 [label="Green <= 0.2\ngini = 0.1\nsamples = 59\nvalue = [4, 93]", fillcolor="#42a1e6"] ;
39 -> 41 ;
42 [label="gini = 0.0\nsamples = 1\nvalue = [2, 0]", fillcolor="#e58139"] ;
41 -> 42 ;
43 [label="Red <= 0.2\ngini = 0.0\nsamples = 58\nvalue = [2, 93]", fillcolor="#3d9fe6"] ;
41 -> 43 ;
44 [label="Red <= 0.1\ngini = 0.3\nsamples = 8\nvalue = [2, 9]", fillcolor="#65b3eb"] ;
43 -> 44 ;
45 [label="gini = 0.0\nsamples = 7\nvalue = [0, 9]", fillcolor="#399de5"] ;
44 -> 45 ;
46 [label="gini = 0.0\nsamples = 1\nvalue = [2, 0]", fillcolor="#e58139"] ;
44 -> 46 ;
47 [label="gini = 0.0\nsamples = 50\nvalue = [0, 84]", fillcolor="#399de5"] ;
43 -> 47 ;
48 [label="Blue <= 0.6\ngini = 0.0\nsamples = 109\nvalue = [1, 173]", fillcolor="#3a9ee5"] ;
28 -> 48 ;
49 [label="Red <= 0.2\ngini = 0.1\nsamples = 17\nvalue = [1, 24]", fillcolor="#41a1e6"] ;
48 -> 49 ;
50 [label="gini = 0.0\nsamples = 1\nvalue = [1, 0]", fillcolor="#e58139"] ;
49 -> 50 ;
51 [label="gini = 0.0\nsamples = 16\nvalue = [0, 24]", fillcolor="#399de5"] ;
49 -> 51 ;
52 [label="gini = 0.0\nsamples = 92\nvalue = [0, 149]", fillcolor="#399de5"] ;
48 -> 52 ;
}