digraph Tree {
node [shape=box, style="filled, rounded", color="black", fontname="helvetica"] ;
edge [fontname="helvetica"] ;
0 [label="Red <= 0.6\ngini = 0.5\nsamples = 472\nvalue = [391, 359]", fillcolor="#fdf5ef"] ;
1 [label="Red <= 0.6\ngini = 0.5\nsamples = 273\nvalue = [257, 182]", fillcolor="#f7dac5"] ;
0 -> 1 [labeldistance=2.5, labelangle=45, headlabel="True"] ;
2 [label="Blue <= 0.6\ngini = 0.5\nsamples = 263\nvalue = [237, 180]", fillcolor="#f9e1cf"] ;
1 -> 2 ;
3 [label="Blue <= 0.5\ngini = 0.1\nsamples = 150\nvalue = [225, 14]", fillcolor="#e78945"] ;
2 -> 3 ;
4 [label="gini = 0.0\nsamples = 131\nvalue = [205, 0]", fillcolor="#e58139"] ;
3 -> 4 ;
5 [label="Blue <= 0.5\ngini = 0.5\nsamples = 19\nvalue = [20, 14]", fillcolor="#f7d9c4"] ;
3 -> 5 ;
6 [label="gini = 0.0\nsamples = 2\nvalue = [0, 4]", fillcolor="#399de5"] ;
5 -> 6 ;
7 [label="Red <= 0.4\ngini = 0.4\nsamples = 17\nvalue = [20, 10]", fillcolor="#f2c09c"] ;
5 -> 7 ;
8 [label="gini = 0.0\nsamples = 11\nvalue = [18, 0]", fillcolor="#e58139"] ;
7 -> 8 ;
9 [label="Green <= 0.4\ngini = 0.3\nsamples = 6\nvalue = [2, 10]", fillcolor="#61b1ea"] ;
7 -> 9 ;
10 [label="gini = 0.0\nsamples = 1\nvalue = [2, 0]", fillcolor="#e58139"] ;
9 -> 10 ;
11 [label="gini = 0.0\nsamples = 5\nvalue = [0, 10]", fillcolor="#399de5"] ;
9 -> 11 ;
12 [label="Green <= 0.7\ngini = 0.1\nsamples = 113\nvalue = [12, 166]", fillcolor="#47a4e7"] ;
2 -> 12 ;
13 [label="Red <= 0.0\ngini = 0.2\nsamples = 69\nvalue = [12, 89]", fillcolor="#54aae9"] ;
12 -> 13 ;
14 [label="Blue <= 0.7\ngini = 0.5\nsamples = 4\nvalue = [7, 5]", fillcolor="#f8dbc6"] ;
13 -> 14 ;
15 [label="gini = 0.0\nsamples = 2\nvalue = [7, 0]", fillcolor="#e58139"] ;
14 -> 15 ;
16 [label="gini = 0.0\nsamples = 2\nvalue = [0, 5]", fillcolor="#399de5"] ;
14 -> 16 ;
17 [label="Blue <= 0.6\ngini = 0.1\nsamples = 65\nvalue = [5, 84]", fillcolor="#45a3e7"] ;
13 -> 17 ;
18 [label="Red <= 0.4\ngini = 0.4\nsamples = 5\nvalue = [5, 2]", fillcolor="#efb388"] ;
17 -> 18 ;
19 [label="gini = 0.0\nsamples = 4\nvalue = [5, 0]", fillcolor="#e58139"] ;
18 -> 19 ;
20 [label="gini = 0.0\nsamples = 1\nvalue = [0, 2]", fillcolor="#399de5"] ;
18 -> 20 ;
21 [label="gini = 0.0\nsamples = 60\nvalue = [0, 82]", fillcolor="#399de5"] ;
17 -> 21 ;
22 [label="gini = 0.0\nsamples = 44\nvalue = [0, 77]", fillcolor="#399de5"] ;
12 -> 22 ;
23 [label="Green <= 1.0\ngini = 0.2\nsamples = 10\nvalue = [20, 2]", fillcolor="#e88e4d"] ;
1 -> 23 ;
24 [label="gini = 0.0\nsamples = 9\nvalue = [20, 0]", fillcolor="#e58139"] ;
23 -> 24 ;
25 [label="gini = 0.0\nsamples = 1\nvalue = [0, 2]", fillcolor="#399de5"] ;
23 -> 25 ;
26 [label="Green <= 0.0\ngini = 0.5\nsamples = 199\nvalue = [134, 177]", fillcolor="#cfe7f9"] ;
0 -> 26 [labeldistance=2.5, labelangle=-45, headlabel="False"] ;
27 [label="gini = 0.0\nsamples = 2\nvalue = [3, 0]", fillcolor="#e58139"] ;
26 -> 27 ;
28 [label="Blue <= 0.4\ngini = 0.5\nsamples = 197\nvalue = [131, 177]", fillcolor="#cce6f8"] ;
26 -> 28 ;
29 [label="Blue <= 0.3\ngini = 0.1\nsamples = 89\nvalue = [128, 6]", fillcolor="#e68742"] ;
28 -> 29 ;
30 [label="gini = 0.0\nsamples = 66\nvalue = [103, 0]", fillcolor="#e58139"] ;
29 -> 30 ;
31 [label="Red <= 0.9\ngini = 0.3\nsamples = 23\nvalue = [25, 6]", fillcolor="#eb9f69"] ;
29 -> 31 ;
32 [label="gini = 0.0\nsamples = 16\nvalue = [21, 0]", fillcolor="#e58139"] ;
31 -> 32 ;
33 [label="Green <= 0.5\ngini = 0.5\nsamples = 7\nvalue = [4, 6]", fillcolor="#bddef6"] ;
31 -> 33 ;
34 [label="gini = 0.0\nsamples = 3\nvalue = [4, 0]", fillcolor="#e58139"] ;
33 -> 34 ;
35 [label="gini = 0.0\nsamples = 4\nvalue = [0, 6]", fillcolor="#399de5"] ;
33 -> 35 ;
36 [label="Green <= 0.1\ngini = 0.0\nsamples = 108\nvalue = [3, 171]", fillcolor="#3c9fe5"] ;
28 -> 36 ;
37 [label="Red <= 0.7\ngini = 0.4\nsamples = 6\nvalue = [2, 5]", fillcolor="#88c4ef"] ;
36 -> 37 ;
38 [label="gini = 0.0\nsamples = 4\nvalue = [0, 4]", fillcolor="#399de5"] ;
37 -> 38 ;
39 [label="Blue <= 0.6\ngini = 0.4\nsamples = 2\nvalue = [2, 1]", fillcolor="#f2c09c"] ;
37 -> 39 ;
40 [label="gini = 0.0\nsamples = 1\nvalue = [2, 0]", fillcolor="#e58139"] ;
39 -> 40 ;
41 [label="gini = 0.0\nsamples = 1\nvalue = [0, 1]", fillcolor="#399de5"] ;
39 -> 41 ;
42 [label="Blue <= 0.4\ngini = 0.0\nsamples = 102\nvalue = [1, 166]", fillcolor="#3a9ee5"] ;
36 -> 42 ;
43 [label="Green <= 0.4\ngini = 0.2\nsamples = 4\nvalue = [1, 6]", fillcolor="#5aade9"] ;
42 -> 43 ;
44 [label="Green <= 0.1\ngini = 0.5\nsamples = 2\nvalue = [1, 1]", fillcolor="#ffffff"] ;
43 -> 44 ;
45 [label="gini = 0.0\nsamples = 1\nvalue = [0, 1]", fillcolor="#399de5"] ;
44 -> 45 ;
46 [label="gini = 0.0\nsamples = 1\nvalue = [1, 0]", fillcolor="#e58139"] ;
44 -> 46 ;
47 [label="gini = 0.0\nsamples = 2\nvalue = [0, 5]", fillcolor="#399de5"] ;
43 -> 47 ;
48 [label="gini = 0.0\nsamples = 98\nvalue = [0, 160]", fillcolor="#399de5"] ;
42 -> 48 ;
}